digraph Tree {
node [shape=box] ;
0 [label="family <= 0.5\nentropy = 1.262\nsamples = 198\nvalue = [3, 18, 148, 19, 10]"] ;
1 [label="hardness <= 1.5\nentropy = 0.881\nsamples = 166\nvalue = [2, 18, 137, 0, 9]"] ;
0 -> 1 [labeldistance=2.5, labelangle=45, headlabel="True"] ;
2 [label="steel <= 2.5\nentropy = 0.7\nsamples = 159\nvalue = [2, 18, 137, 0, 2]"] ;
1 -> 2 ;
3 [label="surface-finish <= 0.5\nentropy = 0.312\nsamples = 96\nvalue = [1, 1, 92, 0, 2]"] ;
2 -> 3 ;
4 [label="4 <= 1.5\nentropy = 0.231\nsamples = 95\nvalue = [1, 0, 92, 0, 2]"] ;
3 -> 4 ;
5 [label="bf <= 0.5\nentropy = 0.092\nsamples = 85\nvalue = [1, 0, 84, 0, 0]"] ;
4 -> 5 ;
6 [label="entropy = 0.0\nsamples = 69\nvalue = [0, 0, 69, 0, 0]"] ;
5 -> 6 ;
7 [label="condition <= 1.0\nentropy = 0.337\nsamples = 16\nvalue = [1, 0, 15, 0, 0]"] ;
5 -> 7 ;
8 [label="entropy = 0.0\nsamples = 1\nvalue = [1, 0, 0, 0, 0]"] ;
7 -> 8 ;
9 [label="entropy = 0.0\nsamples = 15\nvalue = [0, 0, 15, 0, 0]"] ;
7 -> 9 ;
10 [label="steel <= 1.5\nentropy = 0.722\nsamples = 10\nvalue = [0, 0, 8, 0, 2]"] ;
4 -> 10 ;
11 [label="entropy = 0.0\nsamples = 2\nvalue = [0, 0, 0, 0, 2]"] ;
10 -> 11 ;
12 [label="entropy = 0.0\nsamples = 8\nvalue = [0, 0, 8, 0, 0]"] ;
10 -> 12 ;
13 [label="entropy = 0.0\nsamples = 1\nvalue = [0, 1, 0, 0, 0]"] ;
3 -> 13 ;
14 [label="thick <= 0.5\nentropy = 0.952\nsamples = 63\nvalue = [1, 17, 45, 0, 0]"] ;
2 -> 14 ;
15 [label="entropy = 0.0\nsamples = 20\nvalue = [0, 0, 20, 0, 0]"] ;
14 -> 15 ;
16 [label="thick <= 1.5\nentropy = 1.11\nsamples = 43\nvalue = [1, 17, 25, 0, 0]"] ;
14 -> 16 ;
17 [label="formability <= 2.5\nentropy = 1.163\nsamples = 33\nvalue = [1, 17, 15, 0, 0]"] ;
16 -> 17 ;
18 [label="blue/bright/varn/clean <= 1.5\nentropy = 1.175\nsamples = 27\nvalue = [1, 11, 15, 0, 0]"] ;
17 -> 18 ;
19 [label="enamelability <= 1.0\nentropy = 0.983\nsamples = 26\nvalue = [0, 11, 15, 0, 0]"] ;
18 -> 19 ;
20 [label="bl <= 0.5\nentropy = 0.902\nsamples = 22\nvalue = [0, 7, 15, 0, 0]"] ;
19 -> 20 ;
21 [label="width <= 1.5\nentropy = 0.696\nsamples = 16\nvalue = [0, 3, 13, 0, 0]"] ;
20 -> 21 ;
22 [label="entropy = 0.0\nsamples = 1\nvalue = [0, 1, 0, 0, 0]"] ;
21 -> 22 ;
23 [label="entropy = 0.567\nsamples = 15\nvalue = [0, 2, 13, 0, 0]"] ;
21 -> 23 ;
24 [label="len <= 0.5\nentropy = 0.918\nsamples = 6\nvalue = [0, 4, 2, 0, 0]"] ;
20 -> 24 ;
25 [label="entropy = 0.0\nsamples = 1\nvalue = [0, 0, 1, 0, 0]"] ;
24 -> 25 ;
26 [label="entropy = 0.722\nsamples = 5\nvalue = [0, 4, 1, 0, 0]"] ;
24 -> 26 ;
27 [label="entropy = 0.0\nsamples = 4\nvalue = [0, 4, 0, 0, 0]"] ;
19 -> 27 ;
28 [label="entropy = 0.0\nsamples = 1\nvalue = [1, 0, 0, 0, 0]"] ;
18 -> 28 ;
29 [label="entropy = 0.0\nsamples = 6\nvalue = [0, 6, 0, 0, 0]"] ;
17 -> 29 ;
30 [label="entropy = 0.0\nsamples = 10\nvalue = [0, 0, 10, 0, 0]"] ;
16 -> 30 ;
31 [label="entropy = 0.0\nsamples = 7\nvalue = [0, 0, 0, 0, 7]"] ;
1 -> 31 ;
32 [label="family <= 1.5\nentropy = 1.289\nsamples = 32\nvalue = [1, 0, 11, 19, 1]"] ;
0 -> 32 [labeldistance=2.5, labelangle=-45, headlabel="False"] ;
33 [label="entropy = 0.0\nsamples = 19\nvalue = [0, 0, 0, 19, 0]"] ;
32 -> 33 ;
34 [label="exptl <= 0.5\nentropy = 0.773\nsamples = 13\nvalue = [1, 0, 11, 0, 1]"] ;
32 -> 34 ;
35 [label="bt <= 0.5\nentropy = 0.414\nsamples = 12\nvalue = [0, 0, 11, 0, 1]"] ;
34 -> 35 ;
36 [label="entropy = 0.0\nsamples = 11\nvalue = [0, 0, 11, 0, 0]"] ;
35 -> 36 ;
37 [label="entropy = 0.0\nsamples = 1\nvalue = [0, 0, 0, 0, 1]"] ;
35 -> 37 ;
38 [label="entropy = 0.0\nsamples = 1\nvalue = [1, 0, 0, 0, 0]"] ;
34 -> 38 ;
}